<?xml version="1.0"?>
<MethodSetup Method="MLP::MLP">
  <GeneralInfo>
    <Info name="TMVA Release" value="4.2.1 [262657]"/>
    <Info name="ROOT Release" value="6.12/07 [396295]"/>
    <Info name="Creator" value="kaho"/>
    <Info name="Date" value="Sat Sep 19 19:31:35 2020"/>
    <Info name="Host" value="Linux vocms0301.cern.ch 2.6.32-696.30.1.el6.x86_64 #1 SMP Tue May 22 06:09:36 CEST 2018 x86_64 x86_64 x86_64 GNU/Linux"/>
    <Info name="Dir" value="/afs/hep.wisc.edu/user/kaho/CMSSW_10_2_16_UL/src/UWHiggs2016/em"/>
    <Info name="Training events" value="145580"/>
    <Info name="TrainingTime" value="2.99612189e+03"/>
    <Info name="AnalysisType" value="Classification"/>
  </GeneralInfo>
  <Options>
    <Option name="NCycles" modified="Yes">600</Option>
    <Option name="HiddenLayers" modified="Yes">N+5</Option>
    <Option name="NeuronType" modified="Yes">tanh</Option>
    <Option name="RandomSeed" modified="No">1</Option>
    <Option name="EstimatorType" modified="No">CE</Option>
    <Option name="NeuronInputType" modified="No">sum</Option>
    <Option name="V" modified="Yes">False</Option>
    <Option name="VerbosityLevel" modified="No">Default</Option>
    <Option name="VarTransform" modified="Yes">N</Option>
    <Option name="H" modified="Yes">True</Option>
    <Option name="CreateMVAPdfs" modified="No">False</Option>
    <Option name="IgnoreNegWeightsInTraining" modified="No">False</Option>
    <Option name="TrainingMethod" modified="No">BP</Option>
    <Option name="LearningRate" modified="No">2.000000e-02</Option>
    <Option name="DecayRate" modified="No">1.000000e-02</Option>
    <Option name="TestRate" modified="Yes">5</Option>
    <Option name="EpochMonitoring" modified="No">False</Option>
    <Option name="Sampling" modified="No">1.000000e+00</Option>
    <Option name="SamplingEpoch" modified="No">1.000000e+00</Option>
    <Option name="SamplingImportance" modified="No">1.000000e+00</Option>
    <Option name="SamplingTraining" modified="No">True</Option>
    <Option name="SamplingTesting" modified="No">False</Option>
    <Option name="ResetStep" modified="No">50</Option>
    <Option name="Tau" modified="No">3.000000e+00</Option>
    <Option name="BPMode" modified="No">sequential</Option>
    <Option name="BatchSize" modified="No">-1</Option>
    <Option name="ConvergenceImprove" modified="No">1.000000e-30</Option>
    <Option name="ConvergenceTests" modified="No">-1</Option>
    <Option name="UseRegulator" modified="Yes">False</Option>
    <Option name="UpdateLimit" modified="No">10000</Option>
    <Option name="CalculateErrors" modified="No">False</Option>
    <Option name="WeightRange" modified="No">1.000000e+00</Option>
  </Options>
  <Variables NVar="20">
    <Variable VarIndex="0" Expression="mPt_Per_e_m_Mass" Label="mPt_Per_e_m_Mass" Title="mPt_Per_e_m_Mass" Unit="" Internal="mPt_Per_e_m_Mass" Type="F" Min="1.78986728e-01" Max="4.14944792e+00"/>
    <Variable VarIndex="1" Expression="ePt_Per_e_m_Mass" Label="ePt_Per_e_m_Mass" Title="ePt_Per_e_m_Mass" Unit="" Internal="ePt_Per_e_m_Mass" Type="F" Min="1.50087640e-01" Max="4.54144382e+00"/>
    <Variable VarIndex="2" Expression="emPt" Label="emPt" Title="emPt" Unit="" Internal="emPt" Type="F" Min="5.30475490e-02" Max="6.06940979e+02"/>
    <Variable VarIndex="3" Expression="emEta" Label="emEta" Title="emEta" Unit="" Internal="emEta" Type="F" Min="-8.87426853e+00" Max="9.52274132e+00"/>
    <Variable VarIndex="4" Expression="j1Pt" Label="j1Pt" Title="j1Pt" Unit="" Internal="j1Pt" Type="F" Min="-1.00000000e+00" Max="8.53553955e+02"/>
    <Variable VarIndex="5" Expression="j2Pt" Label="j2Pt" Title="j2Pt" Unit="" Internal="j2Pt" Type="F" Min="-1.00000000e+00" Max="2.38800278e+02"/>
    <Variable VarIndex="6" Expression="DeltaEta_em_j1" Label="DeltaEta_em_j1" Title="DeltaEta_em_j1" Unit="" Internal="DeltaEta_em_j1" Type="F" Min="-1.00000000e+00" Max="9.57618046e+00"/>
    <Variable VarIndex="7" Expression="DeltaPhi_em_j1" Label="DeltaPhi_em_j1" Title="DeltaPhi_em_j1" Unit="" Internal="DeltaPhi_em_j1" Type="F" Min="-1.00000000e+00" Max="3.14158750e+00"/>
    <Variable VarIndex="8" Expression="DeltaEta_em_j2" Label="DeltaEta_em_j2" Title="DeltaEta_em_j2" Unit="" Internal="DeltaEta_em_j2" Type="F" Min="-1.00000000e+00" Max="8.29588890e+00"/>
    <Variable VarIndex="9" Expression="DeltaPhi_em_j2" Label="DeltaPhi_em_j2" Title="DeltaPhi_em_j2" Unit="" Internal="DeltaPhi_em_j2" Type="F" Min="-1.00000000e+00" Max="3.14157152e+00"/>
    <Variable VarIndex="10" Expression="DeltaEta_j1_j2" Label="DeltaEta_j1_j2" Title="DeltaEta_j1_j2" Unit="" Internal="DeltaEta_j1_j2" Type="F" Min="-1.00000000e+00" Max="2.49991226e+00"/>
    <Variable VarIndex="11" Expression="DeltaPhi_j1_j2" Label="DeltaPhi_j1_j2" Title="DeltaPhi_j1_j2" Unit="" Internal="DeltaPhi_j1_j2" Type="F" Min="-1.00000000e+00" Max="3.14159060e+00"/>
    <Variable VarIndex="12" Expression="m_met_mT" Label="m_met_mT" Title="m_met_mT" Unit="" Internal="m_met_mT" Type="F" Min="2.63091996e-02" Max="5.76935913e+02"/>
    <Variable VarIndex="13" Expression="e_met_mT" Label="e_met_mT" Title="e_met_mT" Unit="" Internal="e_met_mT" Type="F" Min="1.62622728e-03" Max="4.62460785e+02"/>
    <Variable VarIndex="14" Expression="DeltaPhi_e_met" Label="DeltaPhi_e_met" Title="DeltaPhi_e_met" Unit="" Internal="DeltaPhi_e_met" Type="F" Min="4.49581330e-06" Max="3.14158463e+00"/>
    <Variable VarIndex="15" Expression="DeltaPhi_m_met" Label="DeltaPhi_m_met" Title="DeltaPhi_m_met" Unit="" Internal="DeltaPhi_m_met" Type="F" Min="2.35653079e-05" Max="3.14158821e+00"/>
    <Variable VarIndex="16" Expression="DeltaEta_e_met" Label="DeltaEta_e_met" Title="DeltaEta_e_met" Unit="" Internal="DeltaEta_e_met" Type="F" Min="2.54475563e-05" Max="2.49994564e+00"/>
    <Variable VarIndex="17" Expression="DeltaEta_m_met" Label="DeltaEta_m_met" Title="DeltaEta_m_met" Unit="" Internal="DeltaEta_m_met" Type="F" Min="1.64226058e-05" Max="2.39995694e+00"/>
    <Variable VarIndex="18" Expression="MetEt" Label="MetEt" Title="MetEt" Unit="" Internal="MetEt" Type="F" Min="5.17131463e-02" Max="4.45529297e+02"/>
    <Variable VarIndex="19" Expression="e_m_PZeta" Label="e_m_PZeta" Title="e_m_PZeta" Unit="" Internal="e_m_PZeta" Type="F" Min="-2.93222656e+02" Max="7.11463806e+02"/>
  </Variables>
  <Spectators NSpec="0"/>
  <Classes NClass="2">
    <Class Name="Signal" Index="0"/>
    <Class Name="Background" Index="1"/>
  </Classes>
  <Transformations NTransformations="1">
    <Transform Name="Normalize">
      <Selection>
        <Input NInputs="20">
          <Input Type="Variable" Label="mPt_Per_e_m_Mass" Expression="mPt_Per_e_m_Mass"/>
          <Input Type="Variable" Label="ePt_Per_e_m_Mass" Expression="ePt_Per_e_m_Mass"/>
          <Input Type="Variable" Label="emPt" Expression="emPt"/>
          <Input Type="Variable" Label="emEta" Expression="emEta"/>
          <Input Type="Variable" Label="j1Pt" Expression="j1Pt"/>
          <Input Type="Variable" Label="j2Pt" Expression="j2Pt"/>
          <Input Type="Variable" Label="DeltaEta_em_j1" Expression="DeltaEta_em_j1"/>
          <Input Type="Variable" Label="DeltaPhi_em_j1" Expression="DeltaPhi_em_j1"/>
          <Input Type="Variable" Label="DeltaEta_em_j2" Expression="DeltaEta_em_j2"/>
          <Input Type="Variable" Label="DeltaPhi_em_j2" Expression="DeltaPhi_em_j2"/>
          <Input Type="Variable" Label="DeltaEta_j1_j2" Expression="DeltaEta_j1_j2"/>
          <Input Type="Variable" Label="DeltaPhi_j1_j2" Expression="DeltaPhi_j1_j2"/>
          <Input Type="Variable" Label="m_met_mT" Expression="m_met_mT"/>
          <Input Type="Variable" Label="e_met_mT" Expression="e_met_mT"/>
          <Input Type="Variable" Label="DeltaPhi_e_met" Expression="DeltaPhi_e_met"/>
          <Input Type="Variable" Label="DeltaPhi_m_met" Expression="DeltaPhi_m_met"/>
          <Input Type="Variable" Label="DeltaEta_e_met" Expression="DeltaEta_e_met"/>
          <Input Type="Variable" Label="DeltaEta_m_met" Expression="DeltaEta_m_met"/>
          <Input Type="Variable" Label="MetEt" Expression="MetEt"/>
          <Input Type="Variable" Label="e_m_PZeta" Expression="e_m_PZeta"/>
        </Input>
        <Output NOutputs="20">
          <Output Type="Variable" Label="mPt_Per_e_m_Mass" Expression="mPt_Per_e_m_Mass"/>
          <Output Type="Variable" Label="ePt_Per_e_m_Mass" Expression="ePt_Per_e_m_Mass"/>
          <Output Type="Variable" Label="emPt" Expression="emPt"/>
          <Output Type="Variable" Label="emEta" Expression="emEta"/>
          <Output Type="Variable" Label="j1Pt" Expression="j1Pt"/>
          <Output Type="Variable" Label="j2Pt" Expression="j2Pt"/>
          <Output Type="Variable" Label="DeltaEta_em_j1" Expression="DeltaEta_em_j1"/>
          <Output Type="Variable" Label="DeltaPhi_em_j1" Expression="DeltaPhi_em_j1"/>
          <Output Type="Variable" Label="DeltaEta_em_j2" Expression="DeltaEta_em_j2"/>
          <Output Type="Variable" Label="DeltaPhi_em_j2" Expression="DeltaPhi_em_j2"/>
          <Output Type="Variable" Label="DeltaEta_j1_j2" Expression="DeltaEta_j1_j2"/>
          <Output Type="Variable" Label="DeltaPhi_j1_j2" Expression="DeltaPhi_j1_j2"/>
          <Output Type="Variable" Label="m_met_mT" Expression="m_met_mT"/>
          <Output Type="Variable" Label="e_met_mT" Expression="e_met_mT"/>
          <Output Type="Variable" Label="DeltaPhi_e_met" Expression="DeltaPhi_e_met"/>
          <Output Type="Variable" Label="DeltaPhi_m_met" Expression="DeltaPhi_m_met"/>
          <Output Type="Variable" Label="DeltaEta_e_met" Expression="DeltaEta_e_met"/>
          <Output Type="Variable" Label="DeltaEta_m_met" Expression="DeltaEta_m_met"/>
          <Output Type="Variable" Label="MetEt" Expression="MetEt"/>
          <Output Type="Variable" Label="e_m_PZeta" Expression="e_m_PZeta"/>
        </Output>
      </Selection>
      <Class ClassIndex="0">
        <Ranges>
          <Range Index="0" Min="1.8420882523059845e-01" Max="4.1494479179382324e+00"/>
          <Range Index="1" Min="1.8007676303386688e-01" Max="4.5414438247680664e+00"/>
          <Range Index="2" Min="5.3047548979520798e-02" Max="6.0694097900390625e+02"/>
          <Range Index="3" Min="-8.8742685317993164e+00" Max="9.5227413177490234e+00"/>
          <Range Index="4" Min="-1.0000000000000000e+00" Max="5.8378649902343750e+02"/>
          <Range Index="5" Min="-1.0000000000000000e+00" Max="2.0788792419433594e+02"/>
          <Range Index="6" Min="-1.0000000000000000e+00" Max="9.5761804580688477e+00"/>
          <Range Index="7" Min="-1.0000000000000000e+00" Max="3.1415874958038330e+00"/>
          <Range Index="8" Min="-1.0000000000000000e+00" Max="8.2958889007568359e+00"/>
          <Range Index="9" Min="-1.0000000000000000e+00" Max="3.1414074897766113e+00"/>
          <Range Index="10" Min="-1.0000000000000000e+00" Max="2.4995174407958984e+00"/>
          <Range Index="11" Min="-1.0000000000000000e+00" Max="3.1413483619689941e+00"/>
          <Range Index="12" Min="2.6309199631214142e-02" Max="5.7693591308593750e+02"/>
          <Range Index="13" Min="1.6262272838503122e-03" Max="4.4113095092773438e+02"/>
          <Range Index="14" Min="4.4958133003092371e-06" Max="3.1415846347808838e+00"/>
          <Range Index="15" Min="2.3565307856188156e-05" Max="3.1415882110595703e+00"/>
          <Range Index="16" Min="2.5447556254221126e-05" Max="2.4998795986175537e+00"/>
          <Range Index="17" Min="4.1685092583065853e-05" Max="2.3999569416046143e+00"/>
          <Range Index="18" Min="5.1713146269321442e-02" Max="1.5902368164062500e+02"/>
          <Range Index="19" Min="-1.0168998718261719e+02" Max="6.6823663330078125e+02"/>
        </Ranges>
      </Class>
      <Class ClassIndex="1">
        <Ranges>
          <Range Index="0" Min="1.7898672819137573e-01" Max="2.5464162826538086e+00"/>
          <Range Index="1" Min="1.5008763968944550e-01" Max="2.7224383354187012e+00"/>
          <Range Index="2" Min="3.9880913496017456e-01" Max="5.1639001464843750e+02"/>
          <Range Index="3" Min="-6.9698190689086914e+00" Max="7.5952425003051758e+00"/>
          <Range Index="4" Min="-1.0000000000000000e+00" Max="8.5355395507812500e+02"/>
          <Range Index="5" Min="-1.0000000000000000e+00" Max="2.3880027770996094e+02"/>
          <Range Index="6" Min="-1.0000000000000000e+00" Max="8.0393457412719727e+00"/>
          <Range Index="7" Min="-1.0000000000000000e+00" Max="3.1415734291076660e+00"/>
          <Range Index="8" Min="-1.0000000000000000e+00" Max="7.2497611045837402e+00"/>
          <Range Index="9" Min="-1.0000000000000000e+00" Max="3.1415715217590332e+00"/>
          <Range Index="10" Min="-1.0000000000000000e+00" Max="2.4999122619628906e+00"/>
          <Range Index="11" Min="-1.0000000000000000e+00" Max="3.1415905952453613e+00"/>
          <Range Index="12" Min="4.1153606027364731e-02" Max="4.6774472045898438e+02"/>
          <Range Index="13" Min="4.6558454632759094e-03" Max="4.6246078491210938e+02"/>
          <Range Index="14" Min="1.2188072287244722e-04" Max="3.1415386199951172e+00"/>
          <Range Index="15" Min="7.1545284299645573e-05" Max="3.1415565013885498e+00"/>
          <Range Index="16" Min="3.5918081266572699e-05" Max="2.4999456405639648e+00"/>
          <Range Index="17" Min="1.6422605767729692e-05" Max="2.3998258113861084e+00"/>
          <Range Index="18" Min="2.7051538228988647e-01" Max="4.4552929687500000e+02"/>
          <Range Index="19" Min="-2.9322265625000000e+02" Max="7.1146380615234375e+02"/>
        </Ranges>
      </Class>
      <Class ClassIndex="2">
        <Ranges>
          <Range Index="0" Min="1.7898672819137573e-01" Max="4.1494479179382324e+00"/>
          <Range Index="1" Min="1.5008763968944550e-01" Max="4.5414438247680664e+00"/>
          <Range Index="2" Min="5.3047548979520798e-02" Max="6.0694097900390625e+02"/>
          <Range Index="3" Min="-8.8742685317993164e+00" Max="9.5227413177490234e+00"/>
          <Range Index="4" Min="-1.0000000000000000e+00" Max="8.5355395507812500e+02"/>
          <Range Index="5" Min="-1.0000000000000000e+00" Max="2.3880027770996094e+02"/>
          <Range Index="6" Min="-1.0000000000000000e+00" Max="9.5761804580688477e+00"/>
          <Range Index="7" Min="-1.0000000000000000e+00" Max="3.1415874958038330e+00"/>
          <Range Index="8" Min="-1.0000000000000000e+00" Max="8.2958889007568359e+00"/>
          <Range Index="9" Min="-1.0000000000000000e+00" Max="3.1415715217590332e+00"/>
          <Range Index="10" Min="-1.0000000000000000e+00" Max="2.4999122619628906e+00"/>
          <Range Index="11" Min="-1.0000000000000000e+00" Max="3.1415905952453613e+00"/>
          <Range Index="12" Min="2.6309199631214142e-02" Max="5.7693591308593750e+02"/>
          <Range Index="13" Min="1.6262272838503122e-03" Max="4.6246078491210938e+02"/>
          <Range Index="14" Min="4.4958133003092371e-06" Max="3.1415846347808838e+00"/>
          <Range Index="15" Min="2.3565307856188156e-05" Max="3.1415882110595703e+00"/>
          <Range Index="16" Min="2.5447556254221126e-05" Max="2.4999456405639648e+00"/>
          <Range Index="17" Min="1.6422605767729692e-05" Max="2.3999569416046143e+00"/>
          <Range Index="18" Min="5.1713146269321442e-02" Max="4.4552929687500000e+02"/>
          <Range Index="19" Min="-2.9322265625000000e+02" Max="7.1146380615234375e+02"/>
        </Ranges>
      </Class>
    </Transform>
  </Transformations>
  <MVAPdfs/>
  <Weights>
    <Layout NLayers="3">
      <Layer Index="0" NNeurons="21">
        <Neuron NSynapses="25">
          -nan -nan -nan -nan -nan -nan -nan -nan -nan -nan -nan -nan -nan -nan -nan -nan -nan -nan -nan -nan -nan -nan -nan -nan -nan 
        </Neuron>
        <Neuron NSynapses="25">
          -nan -nan -nan -nan -nan -nan -nan -nan -nan -nan -nan -nan -nan -nan -nan -nan -nan -nan -nan -nan -nan -nan -nan -nan -nan 
        </Neuron>
        <Neuron NSynapses="25">
          -nan -nan -nan -nan -nan -nan -nan -nan -nan -nan -nan -nan -nan -nan -nan -nan -nan -nan -nan -nan -nan -nan -nan -nan -nan 
        </Neuron>
        <Neuron NSynapses="25">
          -nan -nan -nan -nan -nan -nan -nan -nan -nan -nan -nan -nan -nan -nan -nan -nan -nan -nan -nan -nan -nan -nan -nan -nan -nan 
        </Neuron>
        <Neuron NSynapses="25">
          -nan -nan -nan -nan -nan -nan -nan -nan -nan -nan -nan -nan -nan -nan -nan -nan -nan -nan -nan -nan -nan -nan -nan -nan -nan 
        </Neuron>
        <Neuron NSynapses="25">
          -nan -nan -nan -nan -nan -nan -nan -nan -nan -nan -nan -nan -nan -nan -nan -nan -nan -nan -nan -nan -nan -nan -nan -nan -nan 
        </Neuron>
        <Neuron NSynapses="25">
          -nan -nan -nan -nan -nan -nan -nan -nan -nan -nan -nan -nan -nan -nan -nan -nan -nan -nan -nan -nan -nan -nan -nan -nan -nan 
        </Neuron>
        <Neuron NSynapses="25">
          -nan -nan -nan -nan -nan -nan -nan -nan -nan -nan -nan -nan -nan -nan -nan -nan -nan -nan -nan -nan -nan -nan -nan -nan -nan 
        </Neuron>
        <Neuron NSynapses="25">
          -nan -nan -nan -nan -nan -nan -nan -nan -nan -nan -nan -nan -nan -nan -nan -nan -nan -nan -nan -nan -nan -nan -nan -nan -nan 
        </Neuron>
        <Neuron NSynapses="25">
          -nan -nan -nan -nan -nan -nan -nan -nan -nan -nan -nan -nan -nan -nan -nan -nan -nan -nan -nan -nan -nan -nan -nan -nan -nan 
        </Neuron>
        <Neuron NSynapses="25">
          -nan -nan -nan -nan -nan -nan -nan -nan -nan -nan -nan -nan -nan -nan -nan -nan -nan -nan -nan -nan -nan -nan -nan -nan -nan 
        </Neuron>
        <Neuron NSynapses="25">
          -nan -nan -nan -nan -nan -nan -nan -nan -nan -nan -nan -nan -nan -nan -nan -nan -nan -nan -nan -nan -nan -nan -nan -nan -nan 
        </Neuron>
        <Neuron NSynapses="25">
          -nan -nan -nan -nan -nan -nan -nan -nan -nan -nan -nan -nan -nan -nan -nan -nan -nan -nan -nan -nan -nan -nan -nan -nan -nan 
        </Neuron>
        <Neuron NSynapses="25">
          -nan -nan -nan -nan -nan -nan -nan -nan -nan -nan -nan -nan -nan -nan -nan -nan -nan -nan -nan -nan -nan -nan -nan -nan -nan 
        </Neuron>
        <Neuron NSynapses="25">
          -nan -nan -nan -nan -nan -nan -nan -nan -nan -nan -nan -nan -nan -nan -nan -nan -nan -nan -nan -nan -nan -nan -nan -nan -nan 
        </Neuron>
        <Neuron NSynapses="25">
          -nan -nan -nan -nan -nan -nan -nan -nan -nan -nan -nan -nan -nan -nan -nan -nan -nan -nan -nan -nan -nan -nan -nan -nan -nan 
        </Neuron>
        <Neuron NSynapses="25">
          -nan -nan -nan -nan -nan -nan -nan -nan -nan -nan -nan -nan -nan -nan -nan -nan -nan -nan -nan -nan -nan -nan -nan -nan -nan 
        </Neuron>
        <Neuron NSynapses="25">
          -nan -nan -nan -nan -nan -nan -nan -nan -nan -nan -nan -nan -nan -nan -nan -nan -nan -nan -nan -nan -nan -nan -nan -nan -nan 
        </Neuron>
        <Neuron NSynapses="25">
          -nan -nan -nan -nan -nan -nan -nan -nan -nan -nan -nan -nan -nan -nan -nan -nan -nan -nan -nan -nan -nan -nan -nan -nan -nan 
        </Neuron>
        <Neuron NSynapses="25">
          -nan -nan -nan -nan -nan -nan -nan -nan -nan -nan -nan -nan -nan -nan -nan -nan -nan -nan -nan -nan -nan -nan -nan -nan -nan 
        </Neuron>
        <Neuron NSynapses="25">
          -nan -nan -nan -nan -nan -nan -nan -nan -nan -nan -nan -nan -nan -nan -nan -nan -nan -nan -nan -nan -nan -nan -nan -nan -nan 
        </Neuron>
      </Layer>
      <Layer Index="1" NNeurons="26">
        <Neuron NSynapses="1">
          -nan 
        </Neuron>
        <Neuron NSynapses="1">
          -nan 
        </Neuron>
        <Neuron NSynapses="1">
          -nan 
        </Neuron>
        <Neuron NSynapses="1">
          -nan 
        </Neuron>
        <Neuron NSynapses="1">
          -nan 
        </Neuron>
        <Neuron NSynapses="1">
          -nan 
        </Neuron>
        <Neuron NSynapses="1">
          -nan 
        </Neuron>
        <Neuron NSynapses="1">
          -nan 
        </Neuron>
        <Neuron NSynapses="1">
          -nan 
        </Neuron>
        <Neuron NSynapses="1">
          -nan 
        </Neuron>
        <Neuron NSynapses="1">
          -nan 
        </Neuron>
        <Neuron NSynapses="1">
          -nan 
        </Neuron>
        <Neuron NSynapses="1">
          -nan 
        </Neuron>
        <Neuron NSynapses="1">
          -nan 
        </Neuron>
        <Neuron NSynapses="1">
          -nan 
        </Neuron>
        <Neuron NSynapses="1">
          -nan 
        </Neuron>
        <Neuron NSynapses="1">
          -nan 
        </Neuron>
        <Neuron NSynapses="1">
          -nan 
        </Neuron>
        <Neuron NSynapses="1">
          -nan 
        </Neuron>
        <Neuron NSynapses="1">
          -nan 
        </Neuron>
        <Neuron NSynapses="1">
          -nan 
        </Neuron>
        <Neuron NSynapses="1">
          -nan 
        </Neuron>
        <Neuron NSynapses="1">
          -nan 
        </Neuron>
        <Neuron NSynapses="1">
          -nan 
        </Neuron>
        <Neuron NSynapses="1">
          -nan 
        </Neuron>
        <Neuron NSynapses="1">
          -nan 
        </Neuron>
      </Layer>
      <Layer Index="2" NNeurons="1">
        <Neuron NSynapses="0"/>
      </Layer>
    </Layout>
  </Weights>
</MethodSetup>
