<?xml version="1.0"?>
<MethodSetup Method="MLP::MLPBFGS">
  <GeneralInfo>
    <Info name="TMVA Release" value="4.2.1 [262657]"/>
    <Info name="ROOT Release" value="6.12/07 [396295]"/>
    <Info name="Creator" value="kaho"/>
    <Info name="Date" value="Sat Sep 19 23:18:47 2020"/>
    <Info name="Host" value="Linux vocms0301.cern.ch 2.6.32-696.30.1.el6.x86_64 #1 SMP Tue May 22 06:09:36 CEST 2018 x86_64 x86_64 x86_64 GNU/Linux"/>
    <Info name="Dir" value="/afs/hep.wisc.edu/user/kaho/CMSSW_10_2_16_UL/src/UWHiggs2016/em"/>
    <Info name="Training events" value="103985"/>
    <Info name="TrainingTime" value="9.10141934e+03"/>
    <Info name="AnalysisType" value="Classification"/>
  </GeneralInfo>
  <Options>
    <Option name="NCycles" modified="Yes">600</Option>
    <Option name="HiddenLayers" modified="Yes">N+5</Option>
    <Option name="NeuronType" modified="Yes">tanh</Option>
    <Option name="RandomSeed" modified="No">1</Option>
    <Option name="EstimatorType" modified="Yes">CE</Option>
    <Option name="NeuronInputType" modified="No">sum</Option>
    <Option name="V" modified="Yes">False</Option>
    <Option name="VerbosityLevel" modified="No">Default</Option>
    <Option name="VarTransform" modified="Yes">N</Option>
    <Option name="H" modified="Yes">True</Option>
    <Option name="CreateMVAPdfs" modified="No">False</Option>
    <Option name="IgnoreNegWeightsInTraining" modified="No">False</Option>
    <Option name="TrainingMethod" modified="Yes">BFGS</Option>
    <Option name="LearningRate" modified="No">2.000000e-02</Option>
    <Option name="DecayRate" modified="No">1.000000e-02</Option>
    <Option name="TestRate" modified="Yes">5</Option>
    <Option name="EpochMonitoring" modified="No">False</Option>
    <Option name="Sampling" modified="No">1.000000e+00</Option>
    <Option name="SamplingEpoch" modified="No">1.000000e+00</Option>
    <Option name="SamplingImportance" modified="No">1.000000e+00</Option>
    <Option name="SamplingTraining" modified="No">True</Option>
    <Option name="SamplingTesting" modified="No">False</Option>
    <Option name="ResetStep" modified="No">50</Option>
    <Option name="Tau" modified="No">3.000000e+00</Option>
    <Option name="BPMode" modified="Yes">batch</Option>
    <Option name="BatchSize" modified="No">103985</Option>
    <Option name="ConvergenceImprove" modified="No">1.000000e-30</Option>
    <Option name="ConvergenceTests" modified="No">-1</Option>
    <Option name="UseRegulator" modified="Yes">False</Option>
    <Option name="UpdateLimit" modified="No">10000</Option>
    <Option name="CalculateErrors" modified="No">False</Option>
    <Option name="WeightRange" modified="No">1.000000e+00</Option>
  </Options>
  <Variables NVar="20">
    <Variable VarIndex="0" Expression="mPt_Per_e_m_Mass" Label="mPt_Per_e_m_Mass" Title="mPt_Per_e_m_Mass" Unit="" Internal="mPt_Per_e_m_Mass" Type="F" Min="1.79299802e-01" Max="4.05964804e+00"/>
    <Variable VarIndex="1" Expression="ePt_Per_e_m_Mass" Label="ePt_Per_e_m_Mass" Title="ePt_Per_e_m_Mass" Unit="" Internal="ePt_Per_e_m_Mass" Type="F" Min="1.74624681e-01" Max="4.54144382e+00"/>
    <Variable VarIndex="2" Expression="emPt" Label="emPt" Title="emPt" Unit="" Internal="emPt" Type="F" Min="1.31955683e-01" Max="6.06940979e+02"/>
    <Variable VarIndex="3" Expression="emEta" Label="emEta" Title="emEta" Unit="" Internal="emEta" Type="F" Min="-8.21786880e+00" Max="8.05105782e+00"/>
    <Variable VarIndex="4" Expression="j1Pt" Label="j1Pt" Title="j1Pt" Unit="" Internal="j1Pt" Type="F" Min="-1.00000000e+00" Max="8.53553955e+02"/>
    <Variable VarIndex="5" Expression="j2Pt" Label="j2Pt" Title="j2Pt" Unit="" Internal="j2Pt" Type="F" Min="-1.00000000e+00" Max="2.05438187e+02"/>
    <Variable VarIndex="6" Expression="DeltaEta_em_j1" Label="DeltaEta_em_j1" Title="DeltaEta_em_j1" Unit="" Internal="DeltaEta_em_j1" Type="F" Min="-1.00000000e+00" Max="9.57618046e+00"/>
    <Variable VarIndex="7" Expression="DeltaPhi_em_j1" Label="DeltaPhi_em_j1" Title="DeltaPhi_em_j1" Unit="" Internal="DeltaPhi_em_j1" Type="F" Min="-1.00000000e+00" Max="3.14158750e+00"/>
    <Variable VarIndex="8" Expression="DeltaEta_em_j2" Label="DeltaEta_em_j2" Title="DeltaEta_em_j2" Unit="" Internal="DeltaEta_em_j2" Type="F" Min="-1.00000000e+00" Max="8.29588890e+00"/>
    <Variable VarIndex="9" Expression="DeltaPhi_em_j2" Label="DeltaPhi_em_j2" Title="DeltaPhi_em_j2" Unit="" Internal="DeltaPhi_em_j2" Type="F" Min="-1.00000000e+00" Max="3.14157152e+00"/>
    <Variable VarIndex="10" Expression="DeltaEta_j1_j2" Label="DeltaEta_j1_j2" Title="DeltaEta_j1_j2" Unit="" Internal="DeltaEta_j1_j2" Type="F" Min="-1.00000000e+00" Max="2.49991226e+00"/>
    <Variable VarIndex="11" Expression="DeltaPhi_j1_j2" Label="DeltaPhi_j1_j2" Title="DeltaPhi_j1_j2" Unit="" Internal="DeltaPhi_j1_j2" Type="F" Min="-1.00000000e+00" Max="3.14159060e+00"/>
    <Variable VarIndex="12" Expression="m_met_mT" Label="m_met_mT" Title="m_met_mT" Unit="" Internal="m_met_mT" Type="F" Min="2.63091996e-02" Max="4.67744720e+02"/>
    <Variable VarIndex="13" Expression="e_met_mT" Label="e_met_mT" Title="e_met_mT" Unit="" Internal="e_met_mT" Type="F" Min="1.62622728e-03" Max="4.61167023e+02"/>
    <Variable VarIndex="14" Expression="DeltaPhi_e_met" Label="DeltaPhi_e_met" Title="DeltaPhi_e_met" Unit="" Internal="DeltaPhi_e_met" Type="F" Min="4.49581330e-06" Max="3.14158463e+00"/>
    <Variable VarIndex="15" Expression="DeltaPhi_m_met" Label="DeltaPhi_m_met" Title="DeltaPhi_m_met" Unit="" Internal="DeltaPhi_m_met" Type="F" Min="2.35653079e-05" Max="3.14155650e+00"/>
    <Variable VarIndex="16" Expression="DeltaEta_e_met" Label="DeltaEta_e_met" Title="DeltaEta_e_met" Unit="" Internal="DeltaEta_e_met" Type="F" Min="2.54475563e-05" Max="2.49987960e+00"/>
    <Variable VarIndex="17" Expression="DeltaEta_m_met" Label="DeltaEta_m_met" Title="DeltaEta_m_met" Unit="" Internal="DeltaEta_m_met" Type="F" Min="1.64226058e-05" Max="2.39995694e+00"/>
    <Variable VarIndex="18" Expression="MetEt" Label="MetEt" Title="MetEt" Unit="" Internal="MetEt" Type="F" Min="5.19614667e-02" Max="4.43918579e+02"/>
    <Variable VarIndex="19" Expression="e_m_PZeta" Label="e_m_PZeta" Title="e_m_PZeta" Unit="" Internal="e_m_PZeta" Type="F" Min="-2.93222656e+02" Max="6.68236633e+02"/>
  </Variables>
  <Spectators NSpec="0"/>
  <Classes NClass="2">
    <Class Name="Signal" Index="0"/>
    <Class Name="Background" Index="1"/>
  </Classes>
  <Transformations NTransformations="1">
    <Transform Name="Normalize">
      <Selection>
        <Input NInputs="20">
          <Input Type="Variable" Label="mPt_Per_e_m_Mass" Expression="mPt_Per_e_m_Mass"/>
          <Input Type="Variable" Label="ePt_Per_e_m_Mass" Expression="ePt_Per_e_m_Mass"/>
          <Input Type="Variable" Label="emPt" Expression="emPt"/>
          <Input Type="Variable" Label="emEta" Expression="emEta"/>
          <Input Type="Variable" Label="j1Pt" Expression="j1Pt"/>
          <Input Type="Variable" Label="j2Pt" Expression="j2Pt"/>
          <Input Type="Variable" Label="DeltaEta_em_j1" Expression="DeltaEta_em_j1"/>
          <Input Type="Variable" Label="DeltaPhi_em_j1" Expression="DeltaPhi_em_j1"/>
          <Input Type="Variable" Label="DeltaEta_em_j2" Expression="DeltaEta_em_j2"/>
          <Input Type="Variable" Label="DeltaPhi_em_j2" Expression="DeltaPhi_em_j2"/>
          <Input Type="Variable" Label="DeltaEta_j1_j2" Expression="DeltaEta_j1_j2"/>
          <Input Type="Variable" Label="DeltaPhi_j1_j2" Expression="DeltaPhi_j1_j2"/>
          <Input Type="Variable" Label="m_met_mT" Expression="m_met_mT"/>
          <Input Type="Variable" Label="e_met_mT" Expression="e_met_mT"/>
          <Input Type="Variable" Label="DeltaPhi_e_met" Expression="DeltaPhi_e_met"/>
          <Input Type="Variable" Label="DeltaPhi_m_met" Expression="DeltaPhi_m_met"/>
          <Input Type="Variable" Label="DeltaEta_e_met" Expression="DeltaEta_e_met"/>
          <Input Type="Variable" Label="DeltaEta_m_met" Expression="DeltaEta_m_met"/>
          <Input Type="Variable" Label="MetEt" Expression="MetEt"/>
          <Input Type="Variable" Label="e_m_PZeta" Expression="e_m_PZeta"/>
        </Input>
        <Output NOutputs="20">
          <Output Type="Variable" Label="mPt_Per_e_m_Mass" Expression="mPt_Per_e_m_Mass"/>
          <Output Type="Variable" Label="ePt_Per_e_m_Mass" Expression="ePt_Per_e_m_Mass"/>
          <Output Type="Variable" Label="emPt" Expression="emPt"/>
          <Output Type="Variable" Label="emEta" Expression="emEta"/>
          <Output Type="Variable" Label="j1Pt" Expression="j1Pt"/>
          <Output Type="Variable" Label="j2Pt" Expression="j2Pt"/>
          <Output Type="Variable" Label="DeltaEta_em_j1" Expression="DeltaEta_em_j1"/>
          <Output Type="Variable" Label="DeltaPhi_em_j1" Expression="DeltaPhi_em_j1"/>
          <Output Type="Variable" Label="DeltaEta_em_j2" Expression="DeltaEta_em_j2"/>
          <Output Type="Variable" Label="DeltaPhi_em_j2" Expression="DeltaPhi_em_j2"/>
          <Output Type="Variable" Label="DeltaEta_j1_j2" Expression="DeltaEta_j1_j2"/>
          <Output Type="Variable" Label="DeltaPhi_j1_j2" Expression="DeltaPhi_j1_j2"/>
          <Output Type="Variable" Label="m_met_mT" Expression="m_met_mT"/>
          <Output Type="Variable" Label="e_met_mT" Expression="e_met_mT"/>
          <Output Type="Variable" Label="DeltaPhi_e_met" Expression="DeltaPhi_e_met"/>
          <Output Type="Variable" Label="DeltaPhi_m_met" Expression="DeltaPhi_m_met"/>
          <Output Type="Variable" Label="DeltaEta_e_met" Expression="DeltaEta_e_met"/>
          <Output Type="Variable" Label="DeltaEta_m_met" Expression="DeltaEta_m_met"/>
          <Output Type="Variable" Label="MetEt" Expression="MetEt"/>
          <Output Type="Variable" Label="e_m_PZeta" Expression="e_m_PZeta"/>
        </Output>
      </Selection>
      <Class ClassIndex="0">
        <Ranges>
          <Range Index="0" Min="1.8489500880241394e-01" Max="4.0596480369567871e+00"/>
          <Range Index="1" Min="1.8007676303386688e-01" Max="4.5414438247680664e+00"/>
          <Range Index="2" Min="1.3195568323135376e-01" Max="6.0694097900390625e+02"/>
          <Range Index="3" Min="-8.2178688049316406e+00" Max="8.0510578155517578e+00"/>
          <Range Index="4" Min="-1.0000000000000000e+00" Max="5.8184722900390625e+02"/>
          <Range Index="5" Min="-1.0000000000000000e+00" Max="2.0543818664550781e+02"/>
          <Range Index="6" Min="-1.0000000000000000e+00" Max="9.5761804580688477e+00"/>
          <Range Index="7" Min="-1.0000000000000000e+00" Max="3.1415874958038330e+00"/>
          <Range Index="8" Min="-1.0000000000000000e+00" Max="8.2958889007568359e+00"/>
          <Range Index="9" Min="-1.0000000000000000e+00" Max="3.1413002014160156e+00"/>
          <Range Index="10" Min="-1.0000000000000000e+00" Max="2.4995174407958984e+00"/>
          <Range Index="11" Min="-1.0000000000000000e+00" Max="3.1410689353942871e+00"/>
          <Range Index="12" Min="2.6309199631214142e-02" Max="3.3973480224609375e+02"/>
          <Range Index="13" Min="1.6262272838503122e-03" Max="4.4113095092773438e+02"/>
          <Range Index="14" Min="4.4958133003092371e-06" Max="3.1415846347808838e+00"/>
          <Range Index="15" Min="2.3565307856188156e-05" Max="3.1414921283721924e+00"/>
          <Range Index="16" Min="2.5447556254221126e-05" Max="2.4998795986175537e+00"/>
          <Range Index="17" Min="4.3762916902778670e-05" Max="2.3999569416046143e+00"/>
          <Range Index="18" Min="5.1961466670036316e-02" Max="1.5705015563964844e+02"/>
          <Range Index="19" Min="-1.0168998718261719e+02" Max="6.6823663330078125e+02"/>
        </Ranges>
      </Class>
      <Class ClassIndex="1">
        <Ranges>
          <Range Index="0" Min="1.7929980158805847e-01" Max="2.5464162826538086e+00"/>
          <Range Index="1" Min="1.7462468147277832e-01" Max="2.6043701171875000e+00"/>
          <Range Index="2" Min="6.5265685319900513e-01" Max="3.8637454223632812e+02"/>
          <Range Index="3" Min="-6.9698190689086914e+00" Max="6.5067110061645508e+00"/>
          <Range Index="4" Min="-1.0000000000000000e+00" Max="8.5355395507812500e+02"/>
          <Range Index="5" Min="-1.0000000000000000e+00" Max="1.9131954956054688e+02"/>
          <Range Index="6" Min="-1.0000000000000000e+00" Max="8.0393457412719727e+00"/>
          <Range Index="7" Min="-1.0000000000000000e+00" Max="3.1415734291076660e+00"/>
          <Range Index="8" Min="-1.0000000000000000e+00" Max="7.2497611045837402e+00"/>
          <Range Index="9" Min="-1.0000000000000000e+00" Max="3.1415715217590332e+00"/>
          <Range Index="10" Min="-1.0000000000000000e+00" Max="2.4999122619628906e+00"/>
          <Range Index="11" Min="-1.0000000000000000e+00" Max="3.1415905952453613e+00"/>
          <Range Index="12" Min="4.1153606027364731e-02" Max="4.6774472045898438e+02"/>
          <Range Index="13" Min="4.6558454632759094e-03" Max="4.6116702270507812e+02"/>
          <Range Index="14" Min="1.2188072287244722e-04" Max="3.1415386199951172e+00"/>
          <Range Index="15" Min="7.1545284299645573e-05" Max="3.1415565013885498e+00"/>
          <Range Index="16" Min="3.5918081266572699e-05" Max="2.4989421367645264e+00"/>
          <Range Index="17" Min="1.6422605767729692e-05" Max="2.3998258113861084e+00"/>
          <Range Index="18" Min="2.7051538228988647e-01" Max="4.4391857910156250e+02"/>
          <Range Index="19" Min="-2.9322265625000000e+02" Max="6.2941326904296875e+02"/>
        </Ranges>
      </Class>
      <Class ClassIndex="2">
        <Ranges>
          <Range Index="0" Min="1.7929980158805847e-01" Max="4.0596480369567871e+00"/>
          <Range Index="1" Min="1.7462468147277832e-01" Max="4.5414438247680664e+00"/>
          <Range Index="2" Min="1.3195568323135376e-01" Max="6.0694097900390625e+02"/>
          <Range Index="3" Min="-8.2178688049316406e+00" Max="8.0510578155517578e+00"/>
          <Range Index="4" Min="-1.0000000000000000e+00" Max="8.5355395507812500e+02"/>
          <Range Index="5" Min="-1.0000000000000000e+00" Max="2.0543818664550781e+02"/>
          <Range Index="6" Min="-1.0000000000000000e+00" Max="9.5761804580688477e+00"/>
          <Range Index="7" Min="-1.0000000000000000e+00" Max="3.1415874958038330e+00"/>
          <Range Index="8" Min="-1.0000000000000000e+00" Max="8.2958889007568359e+00"/>
          <Range Index="9" Min="-1.0000000000000000e+00" Max="3.1415715217590332e+00"/>
          <Range Index="10" Min="-1.0000000000000000e+00" Max="2.4999122619628906e+00"/>
          <Range Index="11" Min="-1.0000000000000000e+00" Max="3.1415905952453613e+00"/>
          <Range Index="12" Min="2.6309199631214142e-02" Max="4.6774472045898438e+02"/>
          <Range Index="13" Min="1.6262272838503122e-03" Max="4.6116702270507812e+02"/>
          <Range Index="14" Min="4.4958133003092371e-06" Max="3.1415846347808838e+00"/>
          <Range Index="15" Min="2.3565307856188156e-05" Max="3.1415565013885498e+00"/>
          <Range Index="16" Min="2.5447556254221126e-05" Max="2.4998795986175537e+00"/>
          <Range Index="17" Min="1.6422605767729692e-05" Max="2.3999569416046143e+00"/>
          <Range Index="18" Min="5.1961466670036316e-02" Max="4.4391857910156250e+02"/>
          <Range Index="19" Min="-2.9322265625000000e+02" Max="6.6823663330078125e+02"/>
        </Ranges>
      </Class>
    </Transform>
  </Transformations>
  <MVAPdfs/>
  <Weights>
    <Layout NLayers="3">
      <Layer Index="0" NNeurons="21">
        <Neuron NSynapses="25">
          1.3073420133169589e+00 3.4291170189024052e+00 2.1305001571334934e+00 1.3320223399254341e+00 -1.6161909388458608e+00 -7.1204617387270408e-01 -4.7055078007245293e-01 -2.6971763964510803e-01 -9.4800764627796974e-01 -1.4109970255586688e+00 -2.7939657979368802e+00 2.6674753797301225e+00 -5.6860155297553936e+00 -1.5640008914218081e-01 -8.3933076281407160e-01 -2.5086442676486503e-01 -9.3329670223379613e-01 6.1521950959729421e-01 8.0058254750709401e-01 7.4071252872747562e-01 -1.1892776821678099e+00 7.5175778952185934e-01 3.2756059638683682e-01 5.5810149057730429e-01 -1.1125807353566375e+00 
        </Neuron>
        <Neuron NSynapses="25">
          -1.0698111463582531e+00 6.6859628961334705e-01 -1.7225816286386683e-01 -2.2992272377271630e+00 -2.3107928897625918e+00 1.3069547934035255e+00 7.8143310062223081e-01 2.9692157660582330e-01 -8.7174351542564255e-01 1.7224217058345317e+00 -1.7308396249975413e+00 -1.6704101248154117e+00 -4.0286632110928011e-01 -8.4685161819506555e-02 1.2650898904952532e+00 4.3578938998460499e+00 7.1933317072215175e-01 2.5431637665975231e+00 1.3862848806179826e+00 3.5752845760463542e-01 3.7260981433988288e-01 7.6370749535428284e-01 -3.2403091455798949e-01 -8.7245762139041991e-02 1.4799371115968996e-01 
        </Neuron>
        <Neuron NSynapses="25">
          2.0150821753818509e+00 1.1909505898657569e+00 -8.2337732026319488e-01 2.4167604540821146e+00 3.2274527883550714e+00 -1.6034138235599424e+00 -2.0088197848218057e+00 6.9906429584708736e+00 -3.1855095583195470e-01 2.7839465908565839e+00 -4.0919586212939381e+00 2.2646543319652532e-01 8.1860821751095592e-01 5.9246956570284659e-01 2.0797165906639004e+00 2.3127715036625904e-01 6.0894002642859414e-02 -7.7681631987716440e+00 1.2898587368873242e+00 -8.6035301949856158e-01 -4.8886316106875388e-01 -6.5476831735574974e+00 4.1489236880032687e-01 1.4146979714269410e+00 5.9880295038943399e-01 
        </Neuron>
        <Neuron NSynapses="25">
          9.9048115360076794e-01 -2.5861437193796482e+00 -6.1202820720651885e-01 8.8391096981749229e-01 9.4593427144072484e-02 2.2354022866874672e+00 6.0272002375704392e-01 8.8804638236314154e-02 5.1801194202098011e-01 -6.1779038815530440e-01 2.1915304495473329e+00 8.4151221261709219e-01 -1.3340769131097044e-02 1.1713295085997184e+00 -1.7055781326380512e+00 -1.2433478807584890e+00 2.3993169748204735e+00 2.2088537977975770e-01 -1.1659194421509465e+00 4.0177161926318777e-01 3.2402026172948872e+00 -1.6496845432928314e-01 -1.5591739227282799e+00 -3.2053256113129242e-01 -2.1156310174687190e-01 
        </Neuron>
        <Neuron NSynapses="25">
          -8.5072196125424693e-01 -1.9525974576293814e+00 1.4212409331758262e+00 3.5316809603690419e-01 -2.8698622158820259e+00 1.2358025208931180e+00 -1.1504895094730931e+00 -6.2401591921074324e+00 -9.7157909231714046e-01 1.9061693917085671e+00 -2.7224911020128402e+00 4.5439318582882310e-01 1.0272824039483508e+00 1.2627695436674160e+00 -9.1897932149994777e-01 1.2924194639544528e+00 -3.7339140417827021e-01 7.9115125815203191e-01 1.2264719073712940e+00 1.2376262127968329e+00 -9.5655461409840536e-01 -1.8442129732183083e+00 -6.4411399635121436e-01 -1.7543522700912044e+00 -1.2768696397110777e+00 
        </Neuron>
        <Neuron NSynapses="25">
          1.0481169642879402e+00 -8.2981807481007308e-01 6.7364282696449640e-01 -2.7305649786592903e+00 4.6343170119316957e-01 2.0146616096778005e+00 -4.8972612640861790e+00 -1.0783021717292041e+00 -3.2071011876484543e+00 -7.5025882652963194e-01 -1.7416853747438016e-01 1.4522844475830332e+00 -1.6268347511062315e+00 1.9909442189104973e-01 1.5594601359535125e+00 2.4321527783858423e+00 1.3672044772940681e-01 2.2547844020399612e+00 -2.0997285677801072e-01 8.1388383391783969e-01 -2.0569784829863491e+00 -9.4987470305279353e-01 -8.8728874486898124e-01 9.5143210982928716e-01 2.6097526561346990e-01 
        </Neuron>
        <Neuron NSynapses="25">
          -8.9734656122173928e-01 3.7982208608541096e-01 3.7830564706066734e+00 2.8104870011809557e-01 -4.3271747337966848e-02 -1.4500087388365879e-01 1.3623869680449663e+00 9.4945043477064728e-01 1.4032165202080475e+00 -1.8884954337972313e+00 -4.9965784449778394e-01 6.6809720364906655e-01 4.8452569299161202e-01 2.5101381541273184e+00 -1.3750728280056945e-01 -4.0479188997851114e+00 -7.9703970413251313e-01 1.1212830179373122e-01 -1.2408899130986342e+00 2.1372343357812552e-02 1.8425413664532162e+00 -7.7470988675342967e-01 -7.3563775449712587e-01 7.1065113753728526e-01 -4.1414068885968719e-01 
        </Neuron>
        <Neuron NSynapses="25">
          -3.1178060714110232e+00 -1.0096157958334587e-01 6.4726831132288687e-01 1.3925935065884567e+00 1.3026436003112751e-01 3.4847360563884500e-01 4.0538136646852546e-01 1.0549532024493100e+00 -3.1543532471154792e+00 -7.0188900159165979e-01 -1.9502472016821912e+00 2.0921803463895050e+00 3.8382421694260880e+00 4.4181455026613048e-01 -7.2553294115006772e-01 -1.4532299970032614e+00 -6.1040102178970213e-01 1.0720834333659655e+00 1.0989189597844957e+00 3.4628759131275273e+00 -1.3539925315957599e+00 -1.2189505628338773e+00 1.1302352621417049e+00 2.4286263580929739e+00 -8.2449874372837306e-01 
        </Neuron>
        <Neuron NSynapses="25">
          4.5377692286971427e-01 8.8164015426349940e-01 7.3487077692335268e-01 -4.2257752950744942e+00 -1.1215350728834218e-01 1.1573308320776430e+00 3.3862818093917246e-01 1.1616777941431719e-01 1.9068215128675656e+00 2.4675883934457157e+00 -6.3745409692107968e-01 9.9229154098596828e-01 -1.7604816930065565e+00 -1.5831418871946701e+00 4.0314404669422427e-01 1.7772305682067759e+00 7.7229081368662500e-01 2.2800871810003205e+00 2.0775281041054261e+00 3.9725394394647090e-01 -3.5069440616905032e+00 -6.8367716529482103e-01 -1.9225955197028040e+00 1.0391897586494432e-01 1.2729820955732076e+00 
        </Neuron>
        <Neuron NSynapses="25">
          -8.9848236732066933e-01 2.6775995833541280e+00 -1.2912747633946691e+00 -5.3532581181271799e-01 -3.1819432120637092e-02 2.5433509515445700e+00 -2.4425027289863377e+00 -3.2397168456684405e-01 -2.2650460657401497e+00 3.5226076586121086e-01 1.6406409642130066e+00 -1.7067795947905623e-01 5.5485307968961695e-01 -1.4532560214933876e+00 -1.3329168520845913e+00 -1.8765815260805789e+00 -1.0226317503482825e+00 -4.0893022441473831e-01 -2.1040245603638987e+00 -4.7318576293594337e+00 -5.4861604731995396e-02 3.6203872404522447e-01 -1.7310808594048173e+00 -2.3459915819379112e-01 -1.1856993577397215e+00 
        </Neuron>
        <Neuron NSynapses="25">
          8.0244328905914397e-01 -2.4971358904861281e+00 1.7051305083452137e+00 7.8091675739792077e-01 9.5084530734245387e-02 8.5314876061429867e-01 -3.0209822568085642e+00 -1.1855489061381866e-01 -4.0552980335227655e+00 -1.2252508256066892e+00 -3.0714499754374552e-02 1.2186785239917943e+00 2.2688789139222605e+00 -4.8502495017783753e-01 2.5678798411903270e-01 2.9438662105816354e-01 -1.4320983192031305e+00 -1.2498665879454418e+00 1.1128450015918103e+00 -5.0595693552962429e-01 -1.2796429428956462e+00 3.0861744104361760e-01 9.2466835865848895e-01 -7.8758716411059337e-01 4.0663233507420254e-01 
        </Neuron>
        <Neuron NSynapses="25">
          -2.2371944752712217e-01 2.6269985230142319e+00 9.2287736101056284e-01 8.0674120870176613e-01 8.7839829276884177e-02 -3.9954720278317435e-01 -1.0930076151447492e+00 6.8389941581474667e-01 -7.4846414777170234e-01 -4.4883482684519738e-01 -7.2502908639812635e-01 -1.5300679046371015e+00 2.0762235854483202e+00 -3.0270822885384745e+00 1.1682518093981762e+00 -1.6798365183630974e+00 4.6044281047815695e-03 -7.0399308173366759e-02 2.9476920622141189e-01 -2.5169289963590580e+00 -2.8229343208139612e+00 -6.0270191496661629e-01 3.2079113227623873e-01 2.5604071858601624e-01 -5.1513423770224342e-01 
        </Neuron>
        <Neuron NSynapses="25">
          -3.7801146172107183e-02 -2.4087129467438673e-01 2.2850836409099289e+00 -5.1379853041194454e-02 2.0172640331081518e-01 -1.3277377319060843e-01 -1.0992007778603341e-01 3.7395558495765829e-01 -1.3704748992014915e+00 -9.3160567612897616e-01 -4.0481806268487058e-01 -1.6672516300494455e+00 -2.5417677045456295e+00 5.7398709835779571e-01 2.6220577877333584e-01 -2.6959705951387263e+00 1.9834404292723489e+00 -7.0501404398379197e+00 2.5262174236458552e+00 2.3057077593753500e-01 -1.0355030941305101e+00 -1.4599721179874865e+00 -4.2194856857216889e-01 1.2418410557632589e+00 1.9045714491955177e+00 
        </Neuron>
        <Neuron NSynapses="25">
          2.7554672401384278e-01 1.9856757620753904e+00 2.0017377275132846e+00 -3.7361239170072236e-01 1.7478628562859966e+00 -1.8835323604612311e+00 4.8523967743358426e-01 1.1877963379873047e+00 -2.8395827679732888e-01 -1.6680245500362809e+00 -8.1733339128526872e-03 -2.3782250523211837e-01 -6.5908791887709184e-01 3.5199987646932407e-01 6.6418899921418539e-01 3.5564885345788938e-01 -1.3661997145823318e-01 1.9737722605167993e+00 -9.2248165600934828e-01 9.2326209573363682e-01 -9.4894510779328101e-01 -7.5739772660528093e-01 -8.3412441676437160e-03 3.1749217370347127e+00 3.4720171200001730e+00 
        </Neuron>
        <Neuron NSynapses="25">
          3.4560016117045533e-01 2.9993151513667318e+00 -4.8606868633476845e-02 -7.4487452044353231e-01 -3.1203772931215518e-01 -3.9207420532426540e+00 -1.3802365342543106e+00 -2.7170312944182162e-01 -1.6823557723545859e+00 -1.3705785689462879e+00 -1.8712599860256161e+00 -2.1186109453644764e-01 -4.8163175799958746e-01 -5.7527240915449029e+00 5.7423825344368573e-01 -6.2126481041888031e+00 -1.2534295215450597e+00 -2.2614174761050601e+00 -2.5339398288256355e-02 -1.1357504286071169e+00 1.4729857856007016e+00 1.6378756140927475e-01 -8.5483861888295942e-01 -2.9874274910798493e-01 8.7635049164803647e-01 
        </Neuron>
        <Neuron NSynapses="25">
          1.1551413619408408e+00 1.8884934307639383e+00 1.4408093775563509e+00 3.0476449230994644e+00 2.3068871192866214e-02 -1.1213596725191544e+00 -5.1821579127617379e-01 -6.6673399981980880e-03 -2.7142343634552422e+00 1.0915372272593353e+00 2.2331207160054767e-01 2.1951931235234867e-01 2.0018421491669645e+00 -4.4247689611529211e+00 -1.6837330241126782e+00 1.4778542289678460e+00 -7.5591718885342540e-01 -1.8007050429864732e-01 -4.7802897996629462e-01 -4.8070006475244631e-01 2.8821591197086227e+00 1.5942916366106838e-01 6.4988861862776115e-01 1.3522687655607252e-01 -3.5508572217616308e-01 
        </Neuron>
        <Neuron NSynapses="25">
          4.3602913521622870e+00 1.4071094355180689e+00 8.5719253213644686e-01 7.8045063951718225e-03 -1.6261517280671736e-01 -1.9486922031920157e+00 3.0532718914799850e-01 -3.3592219181368885e-02 -1.6060956870372092e+00 -7.5039438055725671e-01 -9.4001940729745126e-01 -3.9768801861024966e-01 -3.4760907759915211e-01 -2.0670842638945710e+00 -1.2831423394274116e-01 -1.3427488349923824e+00 3.1728633551718386e+00 -3.4484083813003868e-01 1.4455583454873973e+00 3.4112212676184456e-01 -6.0730174049183150e-01 7.2016111583346216e-03 1.5741898403686854e+00 -2.7141129747321663e-01 2.8077553100400737e-01 
        </Neuron>
        <Neuron NSynapses="25">
          4.1244196450041204e-01 -2.5734379192400256e+00 -2.4131042827281632e+00 -1.3148212598997422e+00 9.3941795962668009e-02 4.7124329325238806e-01 -1.5803685985557965e+00 -6.7983321807620900e-02 9.9246818733252085e-01 4.3352629453520114e-02 5.8271274445962957e+00 6.2034513382320045e-01 1.0262451380461138e-01 -3.9406276076784370e+00 -5.5230498621042157e-01 -4.1993209428507272e-01 -3.5086197228369398e-01 -4.8982744893101243e-01 7.2216034391607176e-01 -1.0369916489540085e+00 4.2370635804882323e-01 -4.7050294466593695e-03 -9.8568837303280588e-02 -1.0651480541572353e-01 -7.1441954973153154e-01 
        </Neuron>
        <Neuron NSynapses="25">
          1.1807646833759298e+00 -1.3591682682375243e+00 8.8923966461025150e-01 3.0365134681765702e+00 8.0366608813412432e-01 -1.0519018851652131e+00 1.9649522965961055e+00 -1.8347936364758557e+00 1.9635973823912527e+00 -5.3110221768731758e-01 1.5240572366181242e+00 -1.1816219652807025e+00 -1.4518560493377173e+00 -5.6744035721661201e-01 2.2732493968632994e+00 8.1981237634607107e-01 -4.3056290771285666e-01 1.0328131606265074e+00 8.3944791700922805e-01 1.0038861314463650e+00 2.1277566051742025e-01 8.3016940371650139e-01 -2.0093191541936783e+00 -2.9776467946312106e+00 -3.0929285937930440e-01 
        </Neuron>
        <Neuron NSynapses="25">
          -3.1779746117734322e+00 -1.4715094813342300e-01 -7.2679309226682809e-01 1.7997003275734103e+00 -5.3387088467394672e-01 -1.2262611231625982e+00 -1.4193559009031091e+00 -1.8699942042290765e+00 1.1771085265202996e+00 -3.9654227864206817e-02 -2.6948024203180507e+00 -2.8425310792274927e+00 5.6961552535734122e-02 1.8111461172477508e+00 8.0100124878084289e-01 2.3256761657440932e+00 -1.3184697591736441e+00 -9.1153561416726858e-01 -1.8264264707170270e+00 -6.4032131190505970e-01 -2.0279913153813611e+00 2.2843214646552976e+00 -4.6489977474685429e-01 2.5994144908159171e+00 7.8171379787569784e-01 
        </Neuron>
        <Neuron NSynapses="25">
          -3.3932393641166039e+00 1.0957302633593069e+00 5.3691086123204956e-01 2.6511984872816488e+00 -1.7229429867161363e+00 -1.8614315015995795e+00 1.3662207773791686e+00 -8.7364462820616418e-01 -1.0229895736338277e+00 -5.5422837332513430e-01 2.0258011531358848e+00 -5.5263331908561242e-01 -1.5735458439414410e-03 -6.9351343329425796e-01 7.0299165853581536e-01 -1.3404766205641754e+00 -1.3766664726796107e+00 -2.3305502691205073e+00 6.9102153742542943e-02 2.1182281612938816e+00 1.2472327890643495e+00 -8.5120239819660348e+00 1.9389231035907140e+00 -1.7344162238164353e+00 2.9501067111676563e-02 
        </Neuron>
      </Layer>
      <Layer Index="1" NNeurons="26">
        <Neuron NSynapses="1">
          -5.2735581060590653e-01 
        </Neuron>
        <Neuron NSynapses="1">
          6.2675276062288465e-01 
        </Neuron>
        <Neuron NSynapses="1">
          -2.6321781539072453e+00 
        </Neuron>
        <Neuron NSynapses="1">
          8.2587255303918283e-01 
        </Neuron>
        <Neuron NSynapses="1">
          -4.6453916070589045e+00 
        </Neuron>
        <Neuron NSynapses="1">
          5.6887117883847638e-01 
        </Neuron>
        <Neuron NSynapses="1">
          -1.0110128823628937e+00 
        </Neuron>
        <Neuron NSynapses="1">
          4.0409823761313355e+00 
        </Neuron>
        <Neuron NSynapses="1">
          1.1222238510666240e+00 
        </Neuron>
        <Neuron NSynapses="1">
          -1.1703360643187273e+00 
        </Neuron>
        <Neuron NSynapses="1">
          -6.3236461842779468e+00 
        </Neuron>
        <Neuron NSynapses="1">
          9.3679460209677112e-01 
        </Neuron>
        <Neuron NSynapses="1">
          -1.6319101955702571e+00 
        </Neuron>
        <Neuron NSynapses="1">
          -2.8504832061194824e-01 
        </Neuron>
        <Neuron NSynapses="1">
          -3.2579388942229124e+00 
        </Neuron>
        <Neuron NSynapses="1">
          8.1722867054208326e-01 
        </Neuron>
        <Neuron NSynapses="1">
          -1.9186724191427021e-01 
        </Neuron>
        <Neuron NSynapses="1">
          1.0293024145586160e+00 
        </Neuron>
        <Neuron NSynapses="1">
          -2.7025679905379012e+00 
        </Neuron>
        <Neuron NSynapses="1">
          -1.0153215553218886e+00 
        </Neuron>
        <Neuron NSynapses="1">
          -2.0930347379909384e+00 
        </Neuron>
        <Neuron NSynapses="1">
          4.8542377611888652e+00 
        </Neuron>
        <Neuron NSynapses="1">
          1.9718431010126442e-01 
        </Neuron>
        <Neuron NSynapses="1">
          4.4780673275700806e+00 
        </Neuron>
        <Neuron NSynapses="1">
          -1.9917535691356214e+00 
        </Neuron>
        <Neuron NSynapses="1">
          2.2195926525400340e+00 
        </Neuron>
      </Layer>
      <Layer Index="2" NNeurons="1">
        <Neuron NSynapses="0"/>
      </Layer>
    </Layout>
  </Weights>
</MethodSetup>
